\data\ 
ngram 1=34
ngram 2=37
ngram 3=36

\1-grams: 
-1.568202	</s>	-99.0
-99.0	<s>	0.0
-1.568202	@	0.0
-1.568202	khut6	0.0
-1.568202	以前	0.0
-1.267172	佢	0.0
-1.267172	係	0.0
-1.568202	即	0.0
-1.568202	及	0.0
-1.568202	呀	0.0
-1.267172	咁	0.0
-1.568202	哦	0.0
-1.267172	啦	0.0
-1.568202	喀	0.0
-1.568202	嘩	0.0
-1.568202	好	0.0
-1.568202	好似	0.0
-1.568202	安	0.0
-1.568202	幼稚	0.0
-1.568202	感	0.0
-1.568202	我	0.0
-1.568202	梁	0.0
-1.568202	淺	0.0
-1.568202	琪	0.0
-1.568202	節目	0.0
-1.568202	聽	0.0
-1.568202	膚	0.0
-1.568202	覺得	0.0
-1.568202	講	0.0
-1.568202	過	0.0
-1.568202	都	0.0
-1.568202	非常之	0.0
-1.568202		0.0
-1.568202		0.0

\2-grams: 
0.0	<s> 好	0.0
0.0	@ 好似	0.0
0.0	khut6 嘩	0.0
0.0	以前 都	0.0
-0.30103	佢 講	0.0
-0.30103	佢 	0.0
-0.30103	係 啦	0.0
-0.30103	係 我	0.0
0.0	即 khut6	0.0
0.0	及 幼稚	0.0
0.0	呀 哦	0.0
-0.30103	咁 </s>	0.0
-0.30103	咁 係	0.0
0.0	哦 即	0.0
-0.30103	啦 @	0.0
-0.30103	啦 係	0.0
0.0	喀 覺得	0.0
0.0	嘩 咁	0.0
0.0	好 感	0.0
0.0	好似 梁	0.0
0.0	安 琪	0.0
0.0	幼稚 呀	0.0
0.0	感 啦	0.0
0.0	我 以前	0.0
0.0	梁 安	0.0
0.0	淺 及	0.0
0.0	琪 咁	0.0
0.0	節目 喀	0.0
0.0	聽 過	0.0
0.0	膚 淺	0.0
0.0	覺得 佢	0.0
0.0	講 	0.0
0.0	過 佢	0.0
0.0	都 聽	0.0
0.0	非常之 膚	0.0
0.0	 非常之	0.0
0.0	 節目	0.0

\3-grams: 
0.0	<s> 好 感
0.0	@ 好似 梁
0.0	khut6 嘩 咁
0.0	以前 都 聽
0.0	佢 講 
0.0	佢  節目
0.0	係 啦 係
0.0	係 我 以前
0.0	即 khut6 嘩
0.0	及 幼稚 呀
0.0	呀 哦 即
0.0	咁 係 啦
0.0	哦 即 khut6
0.0	啦 @ 好似
0.0	啦 係 我
0.0	喀 覺得 佢
0.0	嘩 咁 </s>
0.0	好 感 啦
0.0	好似 梁 安
0.0	安 琪 咁
0.0	幼稚 呀 哦
0.0	感 啦 @
0.0	我 以前 都
0.0	梁 安 琪
0.0	淺 及 幼稚
0.0	琪 咁 係
0.0	節目 喀 覺得
0.0	聽 過 佢
0.0	膚 淺 及
0.0	覺得 佢 講
0.0	講  非常之
0.0	過 佢 
0.0	都 聽 過
0.0	非常之 膚 淺
0.0	 非常之 膚
0.0	 節目 喀

\end
