~h "sil"
<BEGINHMM>
<NUMSTATES> 5
<STATE> 2
<MEAN> 25
 1.504883e-07 8.684067e-07 -2.029801e-06 -3.139016e-06 -5.670948e-07 -6.033954e-07 5.429757e-07 -5.473381e-07 6.584421e-06 2.732687e-06 -1.515216e-07 -6.538031e-07 -2.999474e-05 -4.940327e-06 5.390071e-06 -1.895446e-05 -4.208750e-05 -2.282066e-05 3.369918e-06 1.472514e-05 2.950837e-05 2.761025e-05 -9.481408e-07 -1.413694e-05 4.564168e-05
<VARIANCE> 25
 6.019656e+01 5.047176e+01 6.810436e+01 6.236525e+01 5.773350e+01 6.114660e+01 5.931448e+01 6.553735e+01 5.694159e+01 4.483168e+01 3.951823e+01 3.768837e+01 2.896648e+00 2.771119e+00 3.189880e+00 3.223238e+00 3.661744e+00 3.370527e+00 3.790496e+00 3.822854e+00 3.420407e+00 2.904406e+00 2.665571e+00 2.435954e+00 2.535377e+00
<GCONST> 1.086024e+02
<STATE> 3
<MEAN> 25
 -3.266443e+00 1.679681e+00 -1.623697e+00 4.286252e+00 4.605199e+00 3.942418e+00 3.687757e+00 2.974720e+00 2.077985e+00 2.101089e+00 1.930752e+00 2.814545e+00 -1.784125e-02 -6.431720e-03 -1.845357e-02 8.491541e-03 3.092194e-03 3.548651e-02 2.183517e-02 -4.438875e-03 1.676062e-03 1.967400e-02 1.962957e-02 1.107553e-02 -7.516588e-02
<VARIANCE> 25
 1.575933e+01 1.862290e+01 1.742502e+01 2.052912e+01 2.025383e+01 2.590421e+01 2.038462e+01 2.144946e+01 1.988949e+01 2.053357e+01 1.800145e+01 1.577169e+01 1.887691e-01 3.219585e-01 4.668055e-01 6.391041e-01 8.360726e-01 1.014845e+00 1.146135e+00 1.244231e+00 1.283525e+00 1.289765e+00 1.220430e+00 1.099425e+00 1.110674e-01
<GCONST> 7.629361e+01
<STATE> 4
<MEAN> 25
 1.504883e-07 8.684067e-07 -2.029801e-06 -3.139016e-06 -5.670948e-07 -6.033954e-07 5.429757e-07 -5.473381e-07 6.584421e-06 2.732687e-06 -1.515216e-07 -6.538031e-07 -2.999474e-05 -4.940327e-06 5.390071e-06 -1.895446e-05 -4.208750e-05 -2.282066e-05 3.369918e-06 1.472514e-05 2.950837e-05 2.761025e-05 -9.481408e-07 -1.413694e-05 4.564168e-05
<VARIANCE> 25
 6.019656e+01 5.047176e+01 6.810436e+01 6.236525e+01 5.773350e+01 6.114660e+01 5.931448e+01 6.553735e+01 5.694159e+01 4.483168e+01 3.951823e+01 3.768837e+01 2.896648e+00 2.771119e+00 3.189880e+00 3.223238e+00 3.661744e+00 3.370527e+00 3.790496e+00 3.822854e+00 3.420407e+00 2.904406e+00 2.665571e+00 2.435954e+00 2.535377e+00
<GCONST> 1.086024e+02
<TRANSP> 5
 0.0 1.0 0.0 0.0 0.0
 0.0 0.85 0.1 0.05 0.0
 0.0 0.0 0.85 0.15 0.0
 0.0 0.0 0.0 0.80 0.20
 0.0 0.0 0.0 0.0 0.0
<ENDHMM>
